digraph Tree {
node [shape=box, style="filled", color="black", fontname="helvetica"] ;
edge [fontname="helvetica"] ;
0 [label="worst radius <= 16.795\ngini = 0.468\nsamples = 426\nvalue = [159, 267]\nclass = benign", fillcolor="#afd7f4"] ;
1 [label="worst concave points <= 0.136\ngini = 0.161\nsamples = 284\nvalue = [25, 259]\nclass = benign", fillcolor="#4ca6e8"] ;
0 -> 1 [labeldistance=2.5, labelangle=45, headlabel="True"] ;
2 [label="area error <= 91.555\ngini = 0.031\nsamples = 252\nvalue = [4, 248]\nclass = benign", fillcolor="#3c9fe5"] ;
1 -> 2 ;
3 [label="area error <= 48.7\ngini = 0.024\nsamples = 251\nvalue = [3, 248]\nclass = benign", fillcolor="#3b9ee5"] ;
2 -> 3 ;
4 [label="smoothness error <= 0.003\ngini = 0.016\nsamples = 247\nvalue = [2, 245]\nclass = benign", fillcolor="#3b9ee5"] ;
3 -> 4 ;
5 [label="gini = 0.375\nsamples = 4\nvalue = [1, 3]\nclass = benign", fillcolor="#7bbeee"] ;
4 -> 5 ;
6 [label="worst texture <= 33.35\ngini = 0.008\nsamples = 243\nvalue = [1, 242]\nclass = benign", fillcolor="#3a9de5"] ;
4 -> 6 ;
7 [label="gini = 0.0\nsamples = 225\nvalue = [0, 225]\nclass = benign", fillcolor="#399de5"] ;
6 -> 7 ;
8 [label="gini = 0.105\nsamples = 18\nvalue = [1, 17]\nclass = benign", fillcolor="#45a3e7"] ;
6 -> 8 ;
9 [label="gini = 0.375\nsamples = 4\nvalue = [1, 3]\nclass = benign", fillcolor="#7bbeee"] ;
3 -> 9 ;
10 [label="gini = 0.0\nsamples = 1\nvalue = [1, 0]\nclass = malignant", fillcolor="#e58139"] ;
2 -> 10 ;
11 [label="worst texture <= 25.62\ngini = 0.451\nsamples = 32\nvalue = [21, 11]\nclass = malignant", fillcolor="#f3c3a1"] ;
1 -> 11 ;
12 [label="gini = 0.375\nsamples = 12\nvalue = [3, 9]\nclass = benign", fillcolor="#7bbeee"] ;
11 -> 12 ;
13 [label="worst symmetry <= 0.268\ngini = 0.18\nsamples = 20\nvalue = [18, 2]\nclass = malignant", fillcolor="#e88f4f"] ;
11 -> 13 ;
14 [label="gini = 0.444\nsamples = 3\nvalue = [1, 2]\nclass = benign", fillcolor="#9ccef2"] ;
13 -> 14 ;
15 [label="gini = 0.0\nsamples = 17\nvalue = [17, 0]\nclass = malignant", fillcolor="#e58139"] ;
13 -> 15 ;
16 [label="texture error <= 0.473\ngini = 0.106\nsamples = 142\nvalue = [134, 8]\nclass = malignant", fillcolor="#e78945"] ;
0 -> 16 [labeldistance=2.5, labelangle=-45, headlabel="False"] ;
17 [label="gini = 0.0\nsamples = 5\nvalue = [0, 5]\nclass = benign", fillcolor="#399de5"] ;
16 -> 17 ;
18 [label="worst concavity <= 0.191\ngini = 0.043\nsamples = 137\nvalue = [134, 3]\nclass = malignant", fillcolor="#e6843d"] ;
16 -> 18 ;
19 [label="gini = 0.48\nsamples = 5\nvalue = [2, 3]\nclass = benign", fillcolor="#bddef6"] ;
18 -> 19 ;
20 [label="gini = 0.0\nsamples = 132\nvalue = [132, 0]\nclass = malignant", fillcolor="#e58139"] ;
18 -> 20 ;
}